float conv2_weight[] = {
-0.025704, 0.100937, 0.012666, 0.110368, -0.085755, 0.004273, 0.033871, -0.092444, 
-0.044932, -0.002759, -0.032563, 0.070486, -0.111039, -0.028035, 0.062882, -0.088838, 
0.101439, -0.103117, -0.037259, 0.122574, 0.003051, -0.150578, -0.178925, 0.118952, 
-0.014629, 0.121165, 0.058039, 0.047971, 0.073621, 0.049277, -0.003147, 0.056686, 
-0.009278, 0.061900, 0.111517, 0.034985, -0.026724, 0.065413, 0.066151, 0.001043, 
-0.111001, 0.088798, 0.015981, 0.084101, 0.068018, -0.061227, 0.048222, 0.028151, 
-0.110151, 0.022481, 0.020518, 0.090689, -0.123797, 0.004844, -0.065017, 0.086524, 
-0.046937, -0.072664, 0.040746, 0.023154, -0.062762, -0.108202, 0.053474, 0.062445, 
0.046331, -0.007282, 0.085305, -0.121048, -0.130922, 0.081720, -0.049520, 0.043787, 
0.100057, -0.037144, 0.098483, -0.020392, -0.019171, 0.078961, 0.119160, 0.023514, 
0.083715, -0.012999, 0.116799, 0.082889, 0.006448, -0.069134, 0.081399, -0.065076, 
-0.095617, -0.113374, 0.004385, 0.321436, 0.382915, -0.153977, -0.167774, 0.614267, 
-0.076362, -0.166631, -0.142245, -0.086061, 0.045967, 0.016295, -0.024417, -0.143931, 
0.004102, 0.076180, 0.003906, -0.034223, -0.017763, -0.023530, -0.014499, -0.002924, 
-0.109683, 0.120175, -0.036707, 0.071363, -0.036502, -0.022022, 0.122630, 0.080396, 
-0.081709, 0.106401, 0.057866, -0.091936, -0.040557, 0.025429, 0.062908, 0.057933, 
-0.048923, 0.132868, 0.057882, 0.033203, 0.050007, -0.079509, 0.083523, 0.000094, 
-0.028110, -0.014346, 0.078481, 0.047548, -0.073689, -0.032975, -0.061767, -0.053946, 
-0.055878, 0.053639, 0.015200, 0.032273, 0.081570, -0.053261, 0.092021, -0.061073, 
0.118640, 0.021101, 0.043452, 0.051609, 0.034716, 0.111039, 0.153681, -0.033484, 
0.051267, 0.186142, 0.117615, 0.171521, -0.159935, 0.115928, 0.191095, 0.056015, 
0.239053, 0.275247, 0.116046, 0.067158, -0.092207, 0.075774, -0.036232, 0.085857, 
0.082043, 0.025797, -0.001296, -0.097632, 0.074920, 0.058475, -0.086277, 0.029746, 
-0.073444, -0.106191, -0.064968, -0.070830, 0.055312, -0.100861, 0.073675, -0.032657, 
0.110616, -0.127509, 0.031403, -0.035065, -0.080901, 0.098743, 0.027026, -0.022428, 
0.150879, 0.047941, -0.042601, 0.094168, 0.089418, 0.164722, 0.149895, -0.048248, 
-0.042161, 0.003727, -0.120065, 0.029965, 0.010011, 0.097311, 0.076358, -0.065686, 
0.005072, 0.098921, -0.007891, -0.119226, 0.093779, 0.127922, -0.019316, 0.006558, 
0.053522, 0.124642, 0.115493, 0.071723, 0.107556, -0.150645, 0.050575, 0.012962, 
-0.073966, -0.083551, 0.270282, 0.264779, 0.061780, 0.189047, 0.442906, 0.267852, 
0.016652, 0.310287, 0.296501, -0.078109, -0.020942, -0.083953, 0.070315, 0.008881, 
0.016758, -0.023980, -0.000751, 0.129145, -0.059850, -0.033918, -0.086959, -0.018300, 
0.112831, 0.094435, 0.118436, -0.011727, -0.086965, 0.100843, -0.084174, 0.087800, 
-0.068846, -0.004357, -0.117040, 0.065910, 0.085595, 0.050771, 0.012140, 0.094494, 
0.048431, 0.013442, -0.132609, 0.131305, -0.073761, -0.075739, -0.088858, -0.088336, 
0.018401, 0.025005, -0.124141, 0.088765, 0.053522, -0.094477, -0.032714, 0.017269, 
0.079799, -0.027545, 0.133004, 0.034100, 0.044282, 0.108452, 0.064094, 0.039106, 
0.117946, 0.012914, 0.152149, 0.012235, 0.163143, -0.069768, 0.032357, 0.166859, 
-0.077459, 0.099926, 0.317128, 0.313985, 0.210207, 0.350771, 0.351256, 0.506000, 
-0.108394, 0.380942, 0.533648, -0.018069, -0.061773, -0.045905, -0.065023, 0.072847, 
-0.063366, -0.122555, -0.120261, 0.080013, 0.048284, -0.025818, 0.163207, -0.000732, 
0.160902, 0.118036, -0.090396, 0.036625, 0.169846, 0.058359, 0.060168, -0.038929, 
0.081815, 0.144757, -0.052537, -0.030608, -0.026450, 0.128126, -0.019094, -0.035748, 
-0.111996, -0.031528, -0.130580, -0.107144, 0.059587, -0.069110, -0.007764, 0.096301, 
-0.038515, 0.118412, -0.094623, 0.082606, 0.069028, -0.140109, -0.048474, -0.087664, 
-0.106936, -0.079473, 0.033153, -0.061604, 0.105326, 0.141721, 0.056228, -0.033404, 
0.136865, 0.007043, -0.083182, 0.005850, 0.047070, 0.066310, 0.145600, 0.055093, 
-0.086359, -0.049248, 0.146562, 0.310238, 0.029941, 0.173528, 0.426991, 0.385324, 
0.211645, 0.329133, 0.256724, -0.055016, -0.034696, 0.127718, 0.032497, 0.071503, 
-0.037399, 0.077674, -0.043723, -0.046101, -0.028531, 0.109395, -0.075043, 0.028760, 
-0.022123, 0.053751, 0.094940, 0.125057, -0.050918, 0.095308, 0.125694, 0.000303, 
0.129929, -0.010101, 0.043754, -0.006818, 0.113164, -0.075585, 0.084151, -0.179534, 
0.114651, -0.023784, -0.067349, -0.045509, 0.011193, 0.000883, -0.048958, -0.100978, 
0.018573, 0.032717, -0.090384, -0.011179, 0.112597, -0.109771, -0.082413, 0.098826, 
-0.033998, 0.064907, 0.041528, 0.065206, 0.065516, 0.076858, 0.111243, -0.056331, 
-0.011710, -0.112956, -0.049592, 0.064895, 0.073402, 0.041728, 0.072118, -0.033139, 
-0.105756, -0.117629, -0.035504, -0.087804, -0.093443, 0.369287, 0.050402, -0.009046, 
0.188434, 0.102302, 0.056191, 0.014049, 0.046721, -0.107279, 0.017170, 0.020900, 
0.029583, 0.067958, 0.005661, 0.107740, 0.093058, 0.058183, -0.092650, -0.046969, 
-0.106207, 0.080343, 0.009620, 0.100435, 0.006428, 0.002858, -0.082621, -0.094994, 
0.028466, 0.095207, -0.110425, -0.014282, -0.025120, -0.056599, -0.112179, 0.093036, 
0.050089, 0.095201, -0.130211, 0.102477, 0.021942, -0.016876, 0.032441, 0.093386, 
-0.090465, -0.061676, 0.097419, 0.112654, 0.052615, -0.095860, 0.055940, 0.019160, 
-0.001762, 0.023199, 0.108677, 0.070408, 0.108472, -0.042232, 0.007186, 0.017265, 
0.023181, -0.080078, 0.103321, 0.005825, -0.012946, 0.090024, 0.100412, -0.059635, 
-0.101164, 0.107882, 0.039829, 0.019857, -0.143738, 0.003473, 0.230642, 0.132843, 
0.045676, 0.114496, 0.126183, 0.027682, 0.194443, 0.077464, 0.128161, 0.119619, 
0.111180, 0.119364, -0.094600, -0.021121, 0.100916, 0.044752, -0.097867, 0.067381, 
-0.075003, -0.106456, -0.114302, -0.047844, 0.043886, 0.086871, -0.054710, -0.147132, 
-0.076375, -0.030970, -0.064191, -0.104314, 0.087710, -0.025318, 0.027593, -0.043613, 
0.003739, 0.084470, -0.082046, 0.120116, -0.086227, -0.048012, -0.003675, 0.116196, 
0.082571, 0.135008, 0.010403, -0.077665, 0.015732, -0.046616, -0.014004, 0.069952, 
0.135721, 0.135469, 0.089194, 0.111702, 0.099420, -0.047572, 0.045701, 0.057991, 
-0.027932, 0.097577, 0.057316, 0.056641, 0.074846, 0.053963, -0.101102, -0.051446, 
-0.059596, -0.046771, 0.327531, 0.431369, 0.322632, 0.492811, 0.194570, 0.473772, 
0.092636, -0.107177, 0.164503, -0.013167, 0.039966, -0.105205, -0.069156, -0.020515, 
0.046818, -0.066027, -0.071585, 0.004502, -0.034517, -0.026414, 0.063912, 0.121336, 
-0.054302, 0.129839, 0.079474, -0.084749, -0.055180, -0.026111, 0.036314, 0.028561, 
0.122506, -0.027164, 0.078282, 0.064399, -0.017536, 0.108791, 0.136826, 0.112827, 
0.056776, 0.100070, 0.061510, 0.025189, -0.080066, 0.036368, -0.031059, 0.090728, 
0.043722, 0.030522, -0.009548, -0.035087, -0.105538, -0.061674, 0.051968, -0.071489, 
-0.038225, -0.005338, -0.140483, 0.084170, -0.122184, -0.009455, 0.007795, 0.012421, 
0.000601, -0.060143, -0.051826, -0.034021, 0.103838, 0.008932, -0.066581, -0.001914, 
0.185580, -0.062528, 0.069134, -0.211814, -0.041182, 0.035422, -0.430180, -0.145825, 
0.147211, -0.040028, 0.003183, 0.080016, 0.001545, -0.127587, 0.139515, 0.019208, 
-0.126693, 0.187665, 0.172124, 0.009355, -0.066345, -0.095042, -0.070217, -0.052697, 
-0.020712, -0.036797, -0.036870, -0.003795, -0.085791, -0.110343, 0.107107, 0.016785, 
-0.129801, -0.125616, 0.062226, -0.046674, 0.047189, -0.081217, 0.109881, -0.001928, 
0.031944, 0.116958, 0.036515, -0.013943, -0.038675, 0.076692, 0.130094, 0.150410, 
-0.036322, -0.036636, 0.111395, 0.048751, -0.032314, 0.171254, 0.134170, -0.106878, 
0.032683, -0.029036, 0.040577, 0.103701, -0.021519, -0.078204, 0.012682, 0.069930, 
0.095342, -0.033887, -0.112341, -0.030196, 0.113169, 0.007709, -0.055935, -0.054642, 
-0.088121, -0.084109, 0.047067, 0.060315, -0.115984, -0.069022, -0.087231, -0.365846, 
0.179066, -0.041809, 0.066643, 0.038581, 0.087554, -0.138779, -0.033030, 0.069736, 
0.010666, 0.100093, -0.047615, 0.117916, 0.050377, -0.125040, -0.047004, -0.064688, 
0.055859, -0.054163, 0.013925, -0.075202, 0.061687, -0.033881, 0.097856, -0.049606, 
-0.113299, -0.053374, 0.066586, 0.102968, 0.006346, -0.108286, 0.113198, -0.011874, 
0.050358, -0.104815, -0.061935, 0.102303, 0.112950, 0.123938, 0.091650, -0.094230, 
-0.045368, 0.040919, 0.102241, -0.088485, -0.086335, 0.025472, 0.054883, 0.119882, 
-0.084209, -0.124373, 0.078337, 0.067904, 0.014270, -0.036798, -0.104023, 0.075972, 
-0.048989, 0.102493, 0.142988, -0.004958, 0.072512, 0.141499, 0.009130, -0.126274, 
-0.064068, -0.105556, 0.158487, -0.168407, -0.042132, 0.239648, 0.081095, -0.106218, 
0.218656, 0.055564, 0.166001, 0.131666, -0.098817, -0.156354, -0.020428, -0.013037, 
-0.103723, -0.130380, 0.095404, 0.070643, 0.002349, -0.143867, -0.065121, 0.102526, 
-0.082373, 0.062396, 0.088878, 0.071322, 0.069894, -0.059385, -0.126659, -0.036256, 
0.036414, -0.013426, 0.017900, 0.050893, -0.006018, 0.039023, -0.044539, 0.083038, 
-0.003136, 0.005695, 0.039932, -0.080479, -0.146956, -0.019826, -0.089167, 0.083045, 
0.049484, -0.136577, 0.088051, 0.054387, 0.085404, -0.000331, 0.040326, -0.085147, 
0.071573, 0.034921, 0.058203, -0.025534, -0.115021, -0.072655, 0.175046, -0.010298, 
-0.077059, 0.178778, 0.213848, -0.057643, -0.056523, -0.016419, 0.014840, 0.008505, 
0.225878, 0.017850, 0.390492, 0.227347, 0.328373, -0.136555, 0.005173, 0.075951, 
0.336107, -0.207722, -0.078618, -0.042113, -0.018929, 0.039065, 0.119573, -0.018925, 
-0.138773, 0.132086, 0.039316, -0.007573, -0.017873, 0.066999, -0.020318, -0.063199, 
0.097137, 0.107333, 0.090577, -0.067815, 0.004468, 0.069594, 0.043383, 0.067397, 
0.042933, 0.085032, -0.012092, -0.107814, -0.106009, -0.019943, 0.178812, 0.050267, 
0.092454, -0.057242, -0.000080, -0.006174, -0.095530, 0.186846, -0.025486, -0.011525, 
-0.112092, -0.004645, -0.073801, -0.086349, -0.083017, 0.101617, 0.046133, -0.037642, 
0.059278, 0.063796, 0.119811, 0.129037, 0.145175, -0.055291, -0.000736, 0.116628, 
-0.045470, 0.039723, -0.013947, 0.204521, 0.171315, 0.013383, 0.000529, 0.182116, 
-0.095713, 0.012415, 0.009124, 0.119947, 0.220135, 0.359755, 0.302347, 0.185924, 
0.275929, 0.252463, 0.111973, 0.054334, 0.036898, -0.103496, 0.082621, -0.017822, 
-0.126893, -0.105292, -0.107764, -0.123547, -0.124188, 0.017904, -0.026043, -0.061319, 
0.000743, -0.009426, 0.105581, 0.113794, 0.022109, -0.000312, -0.008980, 0.059497, 
-0.059387, -0.005111, 0.123300, 0.029712, -0.105413, 0.022010, 0.040993, 0.018571, 
-0.065796, 0.178350, 0.153475, 0.086567, -0.066751, -0.038451, 0.022248, 0.109099, 
-0.021901, 0.093200, 0.048174, -0.047512, -0.014325, -0.103860, -0.044068, 0.089985, 
-0.028885, 0.009189, 0.116029, 0.101010, -0.012801, -0.065376, 0.113430, -0.047914, 
-0.115141, -0.071017, -0.110244, 0.112019, 0.023873, 0.084816, 0.016368, -0.021768, 
-0.023183, -0.073227, 0.057057, -0.011711, -0.113394, -0.029659, -0.087867, -0.062694, 
-0.028556, 0.050011, -0.054432, 0.077701, -0.110293, 0.095813, -0.016206, -0.085278, 
-0.006808, 0.025951, -0.116626, 0.114411, 0.068093, -0.087826, -0.085927, -0.048982, 
-0.086874, -0.091761, -0.038085, -0.102350, -0.046291, 0.005089, -0.095195, 0.053507, 
0.093445, 0.041353, -0.103426, -0.073880, 0.055203, 0.080483, -0.104474, 0.116173, 
0.006061, -0.113631, -0.083493, -0.058182, -0.081061, 0.110893, -0.102807, 0.008861, 
0.064602, -0.049941, -0.105678, -0.000058, 0.084700, -0.073481, -0.084495, 0.062637, 
0.129498, 0.143701, -0.097640, -0.096248, 0.144643, -0.007998, -0.004217, 0.184484, 
0.027170, 0.063002, -0.104836, 0.061793, -0.139973, -0.191318, 0.049484, -0.075481, 
0.043033, 0.122796, 0.474244, 0.488989, -0.070326, 0.017811, 0.185936, -0.074886, 
0.192108, 0.471937, 0.084425, -0.007817, 0.061776, 0.045430, -0.088373, -0.068692, 
0.067149, 0.026133, 0.100154, -0.036669, 0.117726, 0.117244, 0.042965, -0.063143, 
0.181204, -0.057228, 0.034330, 0.142793, -0.061121, -0.022412, -0.056350, -0.113939, 
0.102017, 0.082238, -0.122650, -0.087844, 0.093730, -0.141018, -0.055639, 0.072716, 
0.075784, -0.057003, -0.043091, 0.058073, -0.103767, 0.095501, 0.051071, -0.065199, 
0.020645, 0.096411, -0.119904, 0.049955, -0.053279, 0.033677, 0.100121, -0.043476, 

};
int conv2_weight_len = 1152;
