float conv2_weight[] = {
-0.003150, 0.100125, 0.031782, -0.068781, 0.098207, 0.035736, 0.035687, 0.056187, 
0.034265, -0.106249, -0.072178, -0.088866, -0.114006, -0.047567, -0.008886, -0.024262, 
-0.088713, -0.059594, -0.018188, -0.004571, -0.142391, 0.048732, -0.012300, 0.059649, 
0.049402, 0.031205, -0.023200, -0.022277, 0.047480, -0.084313, 0.002079, -0.008924, 
-0.029371, -0.075513, 0.069792, -0.046736, -0.079902, 0.117081, -0.004914, -0.081005, 
0.064599, -0.128629, -0.076976, -0.048700, -0.075188, -0.202840, -0.038341, -0.245099, 
-0.077176, -0.049990, 0.018367, -0.112685, -0.079919, -0.038729, 0.006518, 0.139521, 
-0.120034, 0.084656, -0.038758, -0.055598, 0.071606, 0.127019, -0.006092, -0.059106, 
-0.056444, -0.007746, -0.136594, -0.015881, 0.033956, 0.028880, 0.114695, -0.021896, 
-0.061494, -0.056966, 0.034834, 0.029014, 0.034357, 0.148496, -0.043975, 0.135086, 
0.171364, 0.078091, -0.079902, -0.066137, 0.111412, -0.016794, -0.139197, -0.015747, 
-0.094208, -0.097704, 0.085457, -0.095321, 0.118951, -0.063745, -0.223122, 0.197629, 
-0.134068, 0.004322, 0.157021, 0.129650, 0.061984, 0.027235, -0.085749, 0.033771, 
0.018551, 0.003114, -0.034355, 0.145953, 0.124413, -0.126752, -0.009960, -0.002325, 
-0.148026, 0.085539, -0.086939, -0.050964, 0.096969, 0.109196, 0.183753, -0.008764, 
0.054389, 0.033951, 0.089034, -0.148028, 0.029753, -0.032267, -0.042363, -0.078646, 
0.044351, -0.040120, -0.088421, -0.044793, 0.008718, -0.013098, 0.118788, 0.135362, 
0.040206, -0.082640, -0.030607, -0.072125, 0.113298, -0.114200, -0.151331, -0.026758, 
0.056921, 0.119311, 0.060848, 0.100743, -0.033255, 0.083694, -0.126140, 0.099197, 
0.075281, -0.112870, -0.077396, 0.009956, -0.105233, 0.073115, 0.066747, -0.034390, 
-0.007098, 0.082727, -0.057232, -0.029356, 0.209371, 0.076334, 0.258761, 0.241964, 
0.214973, 0.180437, 0.069581, 0.061247, -0.045799, -0.001530, 0.075384, -0.047121, 
0.122698, 0.026271, 0.088502, 0.013137, -0.008457, -0.055870, -0.025680, 0.057374, 
0.143532, 0.115874, 0.017131, 0.054807, -0.076817, 0.064359, 0.172516, 0.100120, 
0.008068, 0.095844, 0.106317, 0.069600, -0.092232, 0.006349, -0.046782, -0.062858, 
-0.032438, -0.099851, -0.030213, -0.068363, 0.113661, 0.043695, 0.103212, 0.107617, 
0.110474, 0.120161, 0.073250, -0.050050, -0.099669, -0.041234, 0.085628, 0.082184, 
0.059880, 0.105940, 0.101205, 0.096633, 0.087652, 0.044784, -0.140904, -0.091131, 
0.043196, 0.016115, 0.116294, 0.026596, 0.086428, 0.103087, 0.141428, 0.074992, 
0.034649, 0.143774, 0.244536, 0.110693, 0.168936, 0.165375, 0.158460, 0.277174, 
0.131601, 0.369771, 0.126717, 0.015447, 0.077670, 0.092066, 0.066316, 0.078552, 
0.027802, 0.027691, 0.024327, 0.019125, 0.058232, -0.096665, 0.027785, 0.151227, 
0.159807, 0.014201, 0.178353, 0.110563, 0.193631, 0.080229, 0.103193, 0.113718, 
0.136965, 0.066891, -0.023576, 0.127876, 0.038020, -0.062702, -0.093128, 0.012141, 
-0.017545, 0.063437, -0.014606, 0.045985, -0.018797, -0.011606, -0.044177, 0.131160, 
0.047022, 0.128725, 0.108474, 0.079676, 0.127574, 0.088440, 0.057165, 0.062054, 
0.054900, -0.045427, -0.125392, 0.088378, -0.105569, -0.085585, 0.076157, 0.107687, 
0.038737, 0.156522, 0.117736, 0.028235, 0.146849, -0.097272, -0.078405, 0.112197, 
-0.028894, -0.043793, 0.168569, -0.052929, -0.127122, 0.081353, -0.107443, -0.255159, 
0.082676, -0.021729, 0.082801, 0.153131, -0.130750, -0.097792, 0.178462, -0.021658, 
-0.151105, 0.040498, -0.063424, -0.017755, 0.093257, 0.024490, -0.118936, 0.085509, 
0.046410, 0.062117, 0.086245, -0.009548, -0.100614, 0.024725, -0.050299, 0.041177, 
0.133560, 0.121962, 0.116773, -0.000476, 0.225571, 0.037774, 0.021232, -0.051174, 
-0.153138, 0.058813, -0.135299, -0.029217, 0.073046, -0.039054, -0.014180, 0.160474, 
-0.017495, -0.014962, 0.066712, 0.064731, -0.025173, 0.197158, 0.201578, 0.147968, 
0.111721, -0.057782, -0.007732, 0.044182, 0.006682, -0.019069, -0.080061, 0.020659, 
-0.048499, 0.041061, 0.091935, 0.078242, 0.017036, 0.084133, 0.091768, -0.075629, 
-0.003890, -0.042374, 0.050067, 0.146095, 0.101305, 0.092285, 0.244383, 0.075319, 
-0.014649, 0.277848, -0.049086, 0.107416, 0.084856, 0.102690, 0.088158, 0.089097, 
0.108731, -0.092168, 0.001153, -0.023063, -0.090462, 0.011404, -0.033213, 0.158406, 
0.150576, 0.073834, 0.044231, 0.026302, 0.060286, 0.039323, 0.147000, 0.171273, 
-0.097147, 0.017047, 0.059111, 0.085946, 0.117498, 0.020960, 0.066584, 0.117707, 
0.019688, 0.102228, -0.089822, -0.089426, 0.056765, 0.018505, -0.096418, 0.099009, 
0.085855, 0.111923, 0.082470, -0.051247, 0.071954, -0.088227, 0.029936, 0.058649, 
0.170454, 0.132098, 0.161662, 0.191225, -0.020724, 0.133295, 0.067287, -0.167117, 
-0.110765, -0.030457, -0.126822, 0.021119, -0.113082, 0.082042, 0.033098, 0.084038, 
-0.019377, 0.031319, 0.052454, 0.121023, 0.037410, 0.186764, 0.205377, 0.097532, 
0.216864, 0.255208, 0.136632, -0.069679, 0.152259, -0.043801, 0.082009, 0.085563, 
0.163578, 0.073302, 0.076201, -0.095427, 0.011555, 0.042416, -0.048675, 0.157637, 
0.265426, 0.185489, 0.229471, 0.210939, 0.040777, -0.023772, -0.012470, 0.021186, 
-0.033330, -0.003442, -0.050985, -0.048822, -0.064924, -0.053437, 0.019486, -0.080019, 
-0.026665, 0.094397, 0.215215, 0.083870, 0.199017, 0.179938, 0.093457, -0.024558, 
-0.055034, 0.038774, 0.236476, 0.219139, 0.129254, 0.131381, -0.094657, -0.090010, 
-0.130011, 0.002758, 0.038463, -0.035167, -0.012437, -0.007004, 0.077453, -0.068033, 
0.074805, -0.130992, 0.034787, -0.060329, 0.010139, 0.042952, -0.055219, 0.086229, 
0.061638, 0.101314, 0.030249, 0.063306, 0.082482, 0.176501, 0.190688, 0.037836, 
-0.012232, -0.036380, 0.076022, -0.118918, 0.096075, 0.184458, -0.035468, 0.124217, 
0.067317, 0.005979, 0.086977, 0.024911, 0.134083, 0.150277, 0.059773, 0.123855, 
0.081517, 0.080040, 0.025418, 0.131323, 0.000765, 0.182089, -0.023627, 0.047154, 
0.116722, -0.057045, 0.128463, 0.170962, -0.089992, 0.088006, 0.110546, 0.198661, 
0.054719, 0.012758, 0.078703, 0.102030, 0.051364, 0.021881, 0.087040, -0.022415, 
0.013828, 0.149224, 0.049250, -0.048533, -0.143782, 0.213066, -0.003816, -0.077617, 
-0.012833, -0.045238, -0.055508, 0.206693, 0.048570, 0.095639, 0.089979, 0.122834, 
0.106283, 0.032894, 0.061602, 0.002214, 0.002110, 0.041736, -0.105297, 0.157960, 
0.082108, 0.028088, 0.092213, 0.195808, -0.085022, 0.198166, 0.079713, -0.101086, 
0.167039, 0.161155, -0.021519, 0.093630, 0.117096, -0.080162, 0.105578, 0.133120, 
-0.016274, 0.086277, 0.123685, -0.085456, 0.036047, 0.060084, -0.010290, 0.051689, 
-0.078395, 0.024637, 0.081091, 0.166920, 0.061378, 0.072212, 0.039616, 0.167428, 
-0.009286, 0.033846, 0.019657, 0.045888, -0.070120, 0.078442, 0.126574, 0.022649, 
-0.082605, 0.054528, 0.114047, -0.093578, 0.068914, 0.147361, 0.123764, 0.157921, 
0.144818, -0.128483, 0.174234, 0.209439, 0.024079, 0.091753, 0.038574, -0.038125, 
0.013495, -0.123145, -0.108589, -0.070341, 0.032688, 0.049657, -0.010449, -0.047431, 
0.106558, -0.035317, 0.106775, -0.044077, -0.109604, 0.056948, -0.043555, 0.027472, 
0.111864, 0.116127, 0.073399, 0.062505, 0.083037, 0.033442, 0.025144, -0.005900, 
-0.030325, 0.045663, 0.210852, 0.054690, -0.101086, 0.015498, -0.135392, -0.069243, 
0.059079, -0.036697, 0.096499, 0.022787, -0.045020, -0.073492, -0.054282, -0.135461, 
0.033090, -0.103878, -0.009083, 0.009564, -0.067705, -0.109792, -0.068498, 0.040278, 
0.027093, -0.030353, 0.162449, -0.063024, 0.021298, -0.088595, 0.067904, -0.114917, 
-0.004935, -0.099546, -0.109947, 0.055707, 0.082728, -0.012592, 0.119269, -0.049005, 
-0.017153, 0.008867, -0.117590, 0.014894, 0.118636, -0.045823, -0.073291, -0.008685, 
0.080375, -0.029267, -0.094072, -0.059662, -0.042130, 0.033512, -0.153963, 0.042784, 
0.090887, -0.126149, 0.011361, -0.015884, 0.049256, 0.101567, 0.065846, 0.013817, 
0.063258, 0.048652, 0.068571, 0.071574, 0.065932, 0.011509, 0.107116, -0.024701, 
0.043479, 0.098789, 0.150066, 0.092002, -0.018510, 0.012865, -0.081189, -0.118598, 
0.087153, -0.065133, 0.000635, -0.027480, 0.079985, -0.004289, 0.105539, -0.087914, 
0.115287, -0.051137, 0.125326, -0.096773, -0.059638, 0.163165, 0.092673, 0.203485, 
0.172278, 0.097943, 0.042623, 0.042072, 0.164502, 0.122997, 0.008103, -0.105161, 
-0.105438, -0.116331, 0.057140, -0.000116, 0.068463, 0.024039, 0.093479, -0.070247, 
0.143802, 0.015613, 0.107887, 0.017024, 0.012979, -0.072306, 0.143539, 0.154943, 
-0.145317, 0.092484, -0.042442, -0.173404, -0.103150, 0.122452, 0.114531, -0.024216, 
-0.072722, -0.111443, 0.086576, 0.105413, -0.020457, -0.044937, 0.025486, 0.004606, 
0.015274, -0.017940, -0.175009, 0.400035, 0.353016, -0.044220, 0.061863, 0.146975, 
-0.147673, -0.049222, -0.143301, -0.160994, 0.070215, 0.074920, -0.139155, 0.122920, 
-0.019143, -0.101756, 0.001435, -0.003863, 0.091321, 0.199035, 0.025687, -0.001271, 
-0.010045, 0.091748, -0.183545, 0.068683, -0.021226, -0.092834, 0.122832, 0.175444, 
-0.111775, -0.093089, 0.016266, -0.118193, -0.022916, -0.018225, -0.060330, 0.072349, 
0.124250, 0.039303, -0.020717, 0.132691, -0.006849, -0.066878, 0.064039, -0.082138, 
-0.017171, -0.002130, -0.085549, -0.056883, -0.117783, 0.149084, 0.040838, 0.014400, 
0.068264, 0.134571, -0.139087, 0.012051, 0.054390, -0.122271, -0.086202, 0.074770, 
-0.126410, -0.023470, 0.056182, -0.005835, 0.068309, -0.002911, 0.015933, 0.064127, 
0.063363, -0.027956, 0.135080, 0.109524, 0.020490, 0.162977, 0.345410, -0.163564, 
0.238111, 0.161400, -0.318382, 0.009313, 0.130249, -0.057384, -0.095399, 0.092826, 
-0.176579, -0.056602, 0.048038, -0.076613, -0.041748, 0.001697, 0.101539, 0.166338, 
0.202425, -0.013433, 0.079029, 0.135062, -0.206457, 0.066845, 0.076405, 0.139122, 
0.079923, -0.074905, -0.078623, -0.102911, 0.068632, 0.039197, 0.047785, 0.094941, 
-0.010850, 0.045902, 0.025379, -0.091851, -0.046975, 0.130143, -0.071870, 0.131060, 
0.163527, 0.082169, -0.023566, 0.040587, -0.035702, -0.016113, -0.086729, 0.023111, 
-0.075634, -0.050893, 0.166910, 0.130209, 0.171586, 0.067994, 0.196341, 0.211010, 
0.054966, 0.050569, -0.032826, -0.059966, 0.066299, -0.135643, 0.118753, 0.067741, 
0.156992, 0.006365, 0.046385, 0.034525, 0.117654, -0.013675, 0.159527, -0.048225, 
0.229888, 0.150731, -0.027781, -0.039444, 0.048010, 0.088059, -0.094686, -0.055835, 
0.004665, -0.069336, 0.098372, 0.040853, -0.010471, -0.038111, 0.034196, -0.142029, 
-0.024226, -0.018305, 0.119292, 0.006427, 0.035915, 0.093130, -0.073866, 0.126437, 
-0.182650, -0.138883, -0.124790, -0.012757, -0.014454, -0.027486, -0.056236, 0.100301, 
0.062097, -0.084951, 0.086358, 0.175449, 0.073099, -0.029950, 0.072880, 0.013359, 
0.081838, 0.042531, 0.079929, 0.021895, -0.038395, 0.057586, 0.080804, 0.070890, 
0.157415, 0.174666, 0.037126, 0.037622, 0.155804, -0.042705, -0.064328, -0.071292, 
-0.170378, -0.046227, -0.036098, 0.048301, 0.019637, 0.099055, 0.102918, 0.144520, 
0.031476, 0.038442, 0.272197, 0.098193, 0.062522, 0.145216, 0.218848, 0.169785, 
0.344053, 0.289145, 0.001113, 0.067657, -0.010680, 0.019557, 0.069439, 0.143218, 
0.107921, 0.168110, 0.029885, -0.142788, -0.095412, -0.136848, 0.022955, -0.017133, 
0.127618, 0.301501, 0.107069, 0.238487, 0.250141, -0.024909, 0.061357, 0.028582, 
0.048399, 0.100228, -0.106787, -0.018873, -0.054363, -0.072128, 0.058664, -0.084322, 
0.120136, -0.007615, 0.172799, 0.184861, 0.168849, 0.017389, 0.121521, -0.033404, 
0.133634, 0.059357, 0.152713, 0.182511, -0.024650, 0.011300, 0.129973, -0.005907, 
0.137795, 0.119720, 0.003567, 0.004396, 0.185278, 0.013625, -0.053010, 0.172963, 
0.145784, -0.061387, -0.021608, -0.012443, -0.079654, -0.043714, 0.085300, -0.120756, 
0.047551, -0.059657, 0.187807, 0.083775, 0.041890, 0.157387, 0.141495, 0.149356, 
0.158875, 0.276487, 0.072593, 0.074611, 0.086127, -0.042907, 0.130514, 0.183443, 
-0.077577, 0.077175, 0.172376, 0.062156, -0.069602, -0.021610, 0.052635, 0.049799, 
0.092139, -0.106342, 0.003772, 0.183984, 0.075360, -0.183583, -0.083226, -0.096795, 
-0.166752, 0.000999, -0.008119, -0.057557, 0.037727, -0.072897, 0.094200, 0.100599, 
0.021767, 0.094311, 0.157185, 0.094209, -0.033759, 0.071407, 0.005203, -0.137565, 
0.002418, -0.131736, -0.135476, -0.032025, -0.120382, -0.218001, -0.188825, -0.128555, 

};
int conv2_weight_len = 1152;
