float conv2_weight[] = {
0.008307, -0.060493, -0.125185, 0.091177, 0.048301, 0.004221, 0.030392, 0.005367, 
0.054232, 0.098904, -0.070322, -0.054477, -0.059272, 0.028681, 0.016441, -0.017250, 
-0.018831, -0.121676, -0.030860, -0.051438, 0.071133, -0.072572, 0.095502, 0.112611, 
0.019576, -0.051102, 0.078169, -0.110766, -0.090090, -0.083401, 0.007664, -0.060087, 
-0.036048, 0.100766, 0.041084, 0.051958, 0.045603, 0.080813, -0.061889, -0.096793, 
-0.052340, 0.035876, -0.126115, 0.001934, -0.035545, -0.073376, 0.076075, 0.080329, 
-0.032279, -0.050767, -0.031900, 0.090148, -0.083551, 0.076542, 0.104665, -0.029664, 
0.028027, 0.077660, -0.123502, -0.062562, -0.080803, 0.102435, 0.094460, -0.078092, 
-0.008375, 0.093134, 0.049562, 0.020500, -0.026724, -0.035400, -0.018190, -0.069906, 
0.064551, 0.015607, -0.002263, -0.105188, -0.030565, 0.125917, 0.080460, -0.058728, 
0.002503, -0.067502, 0.037809, -0.107229, 0.029842, -0.074543, -0.027916, -0.013783, 
0.034043, -0.023890, 0.060457, -0.088314, -0.074436, -0.053547, -0.021962, -0.029704, 
-0.076644, 0.015029, 0.055197, 0.068030, -0.021890, -0.012096, 0.096977, 0.003668, 
-0.058969, -0.099278, -0.086864, -0.068209, -0.036168, -0.062295, -0.037870, -0.006886, 
0.021802, 0.121593, 0.105701, 0.147809, 0.044796, 0.081637, -0.113364, -0.044665, 
-0.051225, -0.104165, 0.130518, 0.084405, 0.119201, -0.048607, -0.050808, -0.120578, 
0.008185, -0.039399, -0.128280, 0.112519, 0.085697, 0.103518, 0.116977, -0.042715, 
0.016266, -0.032600, -0.039874, -0.073186, 0.087584, 0.046458, 0.064894, 0.015048, 
0.111339, 0.110084, 0.120262, 0.050824, -0.088977, 0.027643, 0.012366, -0.079228, 
-0.086761, -0.026185, -0.013868, -0.081712, 0.102733, -0.058266, 0.011493, -0.069381, 
0.043513, 0.049677, -0.088997, -0.106052, -0.023623, -0.001097, -0.099874, 0.072371, 
0.007335, 0.064219, -0.068723, -0.112098, -0.072365, 0.075617, 0.100945, -0.107523, 
0.004101, 0.057009, 0.061479, 0.106783, 0.045325, -0.085834, -0.017273, -0.107764, 
-0.090758, -0.045245, 0.085196, 0.007078, -0.056902, -0.107170, -0.107232, 0.023654, 
0.021292, -0.103488, 0.012646, 0.089172, -0.088056, 0.170823, 0.003957, -0.079146, 
-0.088514, 0.091110, 0.010704, 0.087242, 0.121471, -0.015927, -0.106437, -0.129645, 
0.016154, 0.113763, 0.052633, -0.111975, -0.046400, -0.103574, -0.099676, -0.016981, 
0.039244, 0.073873, 0.091135, -0.056626, -0.037929, -0.036923, -0.048357, 0.102580, 
-0.076366, -0.082729, 0.091914, 0.099831, -0.103898, 0.115501, 0.036221, -0.062833, 
-0.081547, 0.126476, -0.028671, 0.040553, -0.080107, -0.068191, 0.089965, 0.044519, 
-0.044923, -0.076818, 0.089329, 0.012951, -0.118007, 0.064032, -0.078664, -0.063496, 
-0.117949, -0.089347, -0.088273, 0.052535, -0.042254, -0.006999, 0.061241, 0.036167, 
0.082890, 0.144017, -0.103091, 0.071643, -0.126325, 0.108547, -0.031365, 0.092825, 
0.088001, 0.047164, 0.151167, 0.085061, -0.003003, 0.081021, -0.053718, 0.053459, 
-0.045597, -0.154052, -0.012503, -0.008803, -0.092494, -0.000943, 0.100682, 0.063771, 
-0.021855, -0.110224, -0.068064, 0.116755, 0.105694, 0.098986, 0.011264, -0.116294, 
-0.005550, -0.025362, 0.046557, 0.077808, -0.095544, 0.023577, 0.025415, 0.083006, 
0.074864, 0.079156, -0.093671, 0.093163, -0.066935, -0.025953, -0.125066, 0.071413, 
0.095226, -0.062904, -0.095431, 0.109821, -0.026128, 0.041042, -0.009235, -0.121618, 
-0.089156, 0.028169, 0.087729, -0.100845, -0.062709, 0.015883, -0.124704, -0.043987, 
-0.037884, -0.065739, -0.009397, -0.077169, 0.022658, 0.092064, -0.044642, -0.040534, 
0.023301, 0.125556, -0.047498, -0.027503, -0.100318, 0.120869, -0.040540, -0.003426, 
0.034529, 0.003410, -0.116179, 0.055771, -0.074218, -0.062832, 0.079400, 0.032297, 
-0.087443, -0.021209, 0.060816, 0.098864, -0.114145, -0.049831, -0.095057, -0.051682, 
-0.073960, -0.101333, -0.021167, 0.037753, 0.099443, -0.004448, -0.057658, 0.028499, 
-0.102197, 0.054952, -0.016205, 0.086087, 0.040401, 0.053723, 0.041371, -0.044917, 
-0.034742, 0.131993, 0.103002, -0.086090, 0.095631, 0.031593, -0.005198, 0.003431, 
0.089919, -0.070757, -0.057973, 0.030412, -0.005546, 0.084750, -0.109373, -0.042814, 
0.009392, 0.009068, 0.084074, 0.098346, -0.042859, 0.061012, -0.055039, -0.115030, 
-0.057878, -0.003265, 0.096497, -0.038075, -0.086923, -0.065003, 0.000877, 0.139237, 
0.073601, -0.041007, 0.020810, -0.049110, -0.049525, 0.109447, 0.148157, -0.050893, 
0.113379, -0.071683, -0.025338, 0.091315, -0.048812, 0.075087, -0.074098, 0.140722, 
0.058601, 0.106215, 0.069799, 0.113940, 0.050932, 0.031908, 0.115388, 0.070182, 
-0.068909, -0.119710, -0.030612, -0.048121, 0.081007, 0.110773, -0.082376, 0.037887, 
0.086328, -0.056859, -0.052740, -0.124237, 0.067774, -0.018490, 0.069062, 0.083926, 
-0.088477, 0.066150, 0.042479, -0.102989, -0.117906, -0.060079, 0.001125, 0.027551, 
-0.099535, 0.006704, -0.025498, 0.073391, 0.067451, -0.087330, -0.035878, -0.087010, 
0.018117, -0.066898, -0.115067, 0.079073, -0.010411, 0.027882, -0.123535, 0.031376, 
-0.085178, -0.085858, -0.049017, 0.097969, -0.056944, -0.086920, 0.058049, 0.058433, 
-0.010091, 0.111361, -0.000911, -0.008480, 0.012162, -0.116975, 0.087788, -0.102619, 
-0.019259, 0.001498, -0.019150, -0.033073, -0.068979, -0.011188, -0.122558, 0.007111, 
-0.066776, -0.035733, -0.063036, 0.010685, -0.040375, -0.085700, -0.046639, 0.038878, 
-0.025839, -0.034977, 0.078826, -0.108195, -0.012727, -0.037313, -0.040835, -0.091286, 
-0.019171, 0.004426, 0.044545, -0.046877, 0.094359, 0.050944, -0.076033, 0.029326, 
-0.089342, 0.066467, 0.070429, 0.100970, 0.053434, 0.076697, -0.115279, -0.067586, 
-0.085807, 0.106919, 0.072747, -0.021002, 0.050602, 0.014421, 0.057929, -0.056848, 
-0.018908, 0.102787, -0.060907, 0.000164, -0.100585, -0.002633, -0.089068, 0.013878, 
-0.022819, 0.082840, -0.014058, 0.033273, -0.084132, -0.118949, 0.076604, 0.082437, 
0.005087, -0.126905, -0.000398, 0.036441, -0.076083, 0.048889, 0.059080, 0.095888, 
-0.132004, 0.099856, 0.073249, -0.105511, -0.073998, -0.100217, -0.065768, -0.061267, 
-0.117801, 0.054297, -0.026342, 0.102544, -0.038711, -0.138875, 0.082106, -0.098084, 
0.055092, -0.089500, 0.000086, 0.058479, -0.034706, 0.022583, -0.095274, -0.000810, 
0.021282, -0.051906, -0.030367, 0.087533, -0.073806, -0.010209, 0.046468, -0.074982, 
0.063257, 0.024543, -0.003564, -0.092045, 0.061182, -0.060200, 0.025157, 0.097732, 
0.076111, 0.109652, 0.000217, -0.116768, 0.094787, -0.097020, -0.042637, -0.003350, 
0.057839, 0.040973, 0.089172, -0.001498, -0.000454, 0.099153, -0.009238, 0.094940, 
-0.112658, -0.083800, -0.080411, -0.037313, -0.018264, -0.084748, -0.002683, -0.031404, 
0.102606, -0.009889, -0.066741, -0.092613, 0.006372, 0.037392, -0.110961, 0.097692, 
-0.014533, -0.030122, 0.110989, -0.065186, 0.107044, 0.084003, -0.076746, 0.118694, 
0.097823, -0.017706, 0.010266, 0.129366, -0.082304, 0.068397, 0.006843, 0.006233, 
-0.009617, -0.057018, 0.078477, 0.058392, -0.037781, -0.071497, -0.039734, -0.108586, 
0.033630, 0.061035, 0.077214, 0.052188, -0.046634, -0.060980, -0.001876, 0.073774, 
0.017206, 0.077364, 0.109429, -0.070548, -0.086392, 0.002521, 0.042837, -0.030326, 
0.028176, -0.035284, 0.000499, 0.019222, -0.121367, -0.053975, 0.026791, 0.048368, 
0.095748, -0.124151, 0.035382, -0.109409, 0.035266, -0.111156, -0.124865, -0.130272, 
0.074920, -0.048277, -0.124617, -0.003578, 0.077275, -0.020634, 0.031149, 0.001815, 
0.126990, 0.099090, 0.022268, 0.044226, -0.066398, -0.065305, 0.024114, -0.085980, 
0.067655, 0.049378, 0.033378, 0.034447, 0.095038, 0.100256, 0.105324, 0.051926, 
0.115025, 0.090770, 0.043234, -0.079795, -0.067736, 0.077250, 0.072740, 0.092902, 
0.009195, -0.071632, 0.042749, -0.109390, -0.020486, -0.068760, 0.099641, 0.092649, 
0.117477, 0.075149, -0.115935, -0.004800, 0.009063, 0.026381, -0.095315, -0.003825, 
-0.036031, 0.102969, -0.108201, 0.055221, 0.054885, 0.054167, -0.098780, -0.072614, 
-0.048935, -0.062056, 0.082357, 0.048392, -0.009408, -0.111685, 0.063775, 0.057587, 
-0.102642, 0.025960, -0.099598, 0.098573, 0.109844, 0.125850, 0.081993, 0.064473, 
-0.095440, -0.039895, 0.104234, -0.043921, 0.033259, 0.092694, -0.078264, 0.089947, 
-0.034840, -0.063338, -0.094583, 0.036212, 0.113548, 0.103531, 0.053338, 0.134275, 
0.100424, -0.047684, -0.073066, 0.042631, 0.132640, 0.100343, -0.017802, -0.057674, 
-0.052707, 0.014070, 0.082029, 0.017872, -0.090139, 0.098313, 0.004635, 0.038453, 
0.079732, 0.068477, -0.039673, -0.033452, 0.013463, 0.062174, 0.082526, 0.009080, 
0.120806, -0.002204, 0.056006, -0.090094, 0.014249, 0.085590, 0.101237, -0.042079, 
-0.071773, -0.085549, 0.099088, 0.130615, 0.052237, -0.034558, 0.110092, -0.071614, 
0.019615, 0.120589, 0.019384, -0.052689, 0.044485, -0.023804, -0.069999, 0.098760, 
0.012828, -0.001693, 0.013420, 0.011935, -0.047547, 0.036492, 0.013256, 0.066660, 
0.070496, 0.078423, -0.012072, -0.073871, 0.031744, 0.018994, -0.041805, -0.087486, 
0.050733, -0.078633, 0.069716, 0.125068, 0.101136, -0.079896, -0.060610, 0.073981, 
0.073711, -0.048398, 0.130738, 0.046164, 0.075107, 0.030482, 0.095328, -0.139397, 
-0.036090, -0.108768, 0.003562, -0.036950, 0.026715, -0.128286, 0.078694, 0.032382, 
-0.100074, -0.055230, -0.079931, -0.010496, -0.064761, -0.056381, -0.072890, -0.017227, 
-0.083043, 0.043617, 0.019480, 0.105677, 0.037858, 0.084543, -0.026742, -0.091590, 
-0.019118, 0.106675, -0.048202, 0.043165, -0.022334, -0.039968, 0.079670, -0.049636, 
-0.051131, -0.014103, -0.084230, 0.009121, 0.038824, -0.005158, 0.059716, 0.150218, 
-0.048945, -0.099602, 0.148849, 0.144189, 0.107629, -0.094037, 0.076963, 0.063286, 
0.126954, -0.052575, 0.053629, 0.040552, -0.015987, -0.072478, -0.005560, 0.039336, 
0.004113, -0.047611, 0.108437, 0.079465, 0.094535, 0.071457, -0.007120, -0.110942, 
0.023873, 0.124279, -0.085853, 0.106973, -0.073686, 0.115573, -0.091614, -0.117388, 
0.075575, -0.074238, 0.072190, 0.046962, 0.007117, -0.000459, -0.026227, -0.034921, 
-0.042125, 0.125428, -0.072108, 0.051372, 0.096330, 0.129267, 0.067114, -0.055114, 
0.104097, -0.062651, 0.011947, -0.087588, -0.046406, -0.037432, -0.050569, 0.043368, 
-0.024216, 0.020496, 0.016889, 0.120631, 0.116250, 0.022400, 0.087546, -0.039709, 
0.128957, 0.057678, -0.018219, -0.033642, -0.059057, 0.136398, -0.029113, 0.084193, 
-0.010606, -0.020856, -0.023186, 0.009089, -0.038169, 0.006733, -0.104172, 0.054533, 
0.032898, 0.090655, 0.083005, 0.015801, -0.031174, 0.176158, 0.055508, 0.085422, 
0.056803, 0.182271, 0.137148, 0.124761, -0.049573, 0.151398, 0.146259, 0.173315, 
0.179717, 0.107043, -0.027395, 0.142977, -0.008643, 0.080407, -0.078359, 0.124491, 
0.082547, -0.028989, -0.031623, 0.136949, -0.076012, 0.067754, -0.082030, 0.086722, 
-0.038558, 0.075086, 0.033536, 0.087322, 0.091381, 0.049646, 0.070722, 0.073699, 
-0.036831, 0.082196, -0.120004, -0.002428, -0.017393, -0.043297, -0.021078, 0.018433, 
-0.024611, 0.066350, 0.108831, -0.024838, 0.018238, -0.042244, 0.126248, -0.001295, 
-0.072153, 0.042921, 0.111363, 0.130987, -0.010719, 0.042470, 0.070641, 0.129720, 
-0.106212, -0.084372, 0.149192, 0.024739, 0.094974, 0.119855, -0.084082, 0.020093, 
-0.070251, 0.034988, 0.099695, 0.109601, 0.124298, 0.033447, -0.010644, 0.141960, 
0.146416, 0.077071, -0.110577, -0.119332, 0.103382, 0.141219, 0.097377, 0.169222, 
0.123054, 0.146141, 0.110800, 0.029637, 0.062760, -0.057720, 0.132760, -0.113561, 
0.100167, -0.075510, -0.040353, -0.089590, -0.057895, -0.005310, -0.046118, -0.040668, 
0.131937, 0.099695, -0.066425, -0.026979, 0.074599, -0.066167, 0.139415, -0.020443, 
-0.075755, -0.039787, -0.123590, -0.013527, 0.090067, -0.025975, 0.088557, -0.080884, 
-0.080949, 0.052039, -0.014233, -0.044316, 0.084804, -0.109922, 0.127222, -0.082530, 
-0.078528, 0.041700, -0.052129, -0.081989, -0.051298, 0.118827, -0.002477, -0.067801, 
0.065036, -0.003492, 0.043946, 0.063691, -0.100858, 0.014852, -0.013985, 0.010108, 
-0.062561, 0.115080, -0.018826, -0.119587, 0.150612, 0.074768, 0.038210, 0.118423, 
-0.006027, -0.058141, -0.124781, -0.070510, -0.034845, 0.135602, -0.066735, -0.140143, 
0.019633, 0.069497, 0.011663, 0.085960, -0.028684, 0.024499, 0.021510, 0.081323, 
-0.104823, 0.092696, 0.051086, -0.132251, -0.035591, -0.065832, 0.008913, 0.091384, 
-0.087144, 0.091002, 0.069763, 0.097018, -0.068485, 0.025028, -0.069202, 0.057855, 

};
int conv2_weight_len = 1152;
